1403636587.763556 -0.003903 0.021788 0.078951 
1403636588.113555 -0.004086 0.021862 0.079256 
1403636588.413555 -0.004174 0.021744 0.079203 
1403636588.763556 -0.003858 0.021745 0.079197 
1403636589.163555 -0.003616 0.021803 0.079255 
1403636589.563555 -0.003390 0.021712 0.079167 
1403636589.963556 -0.003233 0.021658 0.079176 
1403636590.313555 -0.003293 0.021614 0.079122 
1403636590.663555 -0.003195 0.021669 0.079223 
1403636591.013556 -0.003437 0.021525 0.079296 
1403636591.463556 -0.003558 0.021396 0.079313 
1403636591.913555 -0.003489 0.021439 0.079319 
1403636592.413555 -0.003628 0.021575 0.079212 
1403636592.913555 -0.003484 0.021485 0.079430 
1403636593.313555 -0.003321 0.021521 0.079256 
1403636593.763556 -0.003121 0.021346 0.079316 
1403636594.213556 -0.003318 0.021405 0.079161 
1403636594.713556 -0.003410 0.021422 0.079205 
1403636595.213556 -0.003316 0.021385 0.079408 
1403636595.763556 -0.003022 0.021248 0.079345 
1403636596.263556 -0.003237 0.021286 0.079110 
1403636596.663555 -0.003252 0.021237 0.079098 
1403636597.163555 -0.003209 0.021317 0.079165 
1403636597.663555 -0.003235 0.021267 0.079119 
1403636598.213556 -0.003059 0.021366 0.079159 
1403636598.813555 -0.003238 0.021225 0.079122 
1403636599.413555 -0.003156 0.021320 0.079173 
1403636599.913555 -0.003211 0.021337 0.079148 
1403636600.363555 -0.003213 0.021335 0.079153 
1403636600.663555 -0.003208 0.021338 0.079196 
1403636600.963556 -0.003233 0.021323 0.079168 
1403636601.363555 -0.003237 0.021302 0.079196 
1403636601.663555 -0.003248 0.021294 0.079183 
1403636602.063555 -0.003238 0.021290 0.079204 
1403636602.363555 -0.003247 0.021269 0.079199 
1403636602.713556 -0.003239 0.021257 0.079217 
1403636603.113555 -0.003243 0.021253 0.079223 
