1403636587.763556 -0.029980 -0.174212 0.081697 
1403636588.113555 -0.044943 0.034785 0.043998 
1403636588.413555 -0.041909 0.063779 0.055274 
1403636588.763556 -0.040438 0.116516 0.059316 
1403636589.163555 -0.034806 0.144180 0.074616 
1403636589.563555 -0.040378 0.153259 0.061404 
1403636589.963556 -0.037071 0.163427 0.070049 
1403636590.313555 -0.036043 0.142930 0.071480 
1403636590.663555 -0.037253 0.164012 0.068291 
1403636591.013556 -0.038828 0.163730 0.064650 
1403636591.463556 -0.038270 0.178558 0.066623 
1403636591.913555 -0.037816 0.179008 0.069139 
1403636592.413555 -0.033929 0.160098 0.077532 
1403636592.913555 -0.027242 0.097674 0.092066 
1403636593.313555 -0.024928 0.084366 0.097448 
1403636593.763556 -0.024817 0.112550 0.097202 
1403636594.213556 -0.021376 0.096314 0.103902 
1403636594.713556 -0.012622 0.049702 0.120134 
1403636595.213556 -0.014520 0.087056 0.113633 
1403636595.763556 -0.013480 0.079961 0.114920 
1403636596.263556 -0.014444 0.092662 0.113144 
1403636596.663555 -0.015024 0.092563 0.111331 
1403636597.163555 -0.014323 0.090773 0.112095 
1403636597.663555 -0.012723 0.093108 0.112464 
1403636598.213556 -0.019148 0.105299 0.102320 
1403636598.813555 -0.011518 0.121122 0.113740 
1403636599.413555 -0.009553 0.165271 0.113145 
1403636599.913555 -0.010382 0.154595 0.110770 
1403636600.363555 -0.010671 0.150771 0.110137 
1403636600.663555 -0.010676 0.151120 0.109901 
1403636600.963556 -0.010707 0.150732 0.109845 
1403636601.363555 -0.010605 0.149118 0.109927 
1403636601.663555 -0.010624 0.148899 0.109747 
1403636602.063555 -0.011136 0.147796 0.108818 
1403636602.363555 -0.011274 0.147787 0.108462 
1403636602.713556 -0.011540 0.147146 0.107965 
1403636603.113555 -0.011638 0.146667 0.107643 
